<?xml version="1.0"?>
<opencv_storage>
<opencv_ml_svm>
  <format>3</format>
  <svmType>C_SVC</svmType>
  <kernel>
    <type>RBF</type>
    <gamma>1.</gamma></kernel>
  <C>1.</C>
  <term_criteria><epsilon>1.1920928955078125e-07</epsilon>
    <iterations>1000</iterations></term_criteria>
  <var_count>100</var_count>
  <class_count>2</class_count>
  <class_labels type_id="opencv-matrix">
    <rows>2</rows>
    <cols>1</cols>
    <dt>i</dt>
    <data>
      0 1</data></class_labels>
  <sv_total>40</sv_total>
  <support_vectors>
    <_>
      5.25700906e-03 0. 1.05140181e-02 9.92990658e-03 1.05140181e-02
      8.17757007e-03 2.10280363e-02 2.80373823e-02 1.22663546e-02
      3.50467279e-03 1.75233632e-02 1.16822426e-03 2.62850467e-02
      8.17757007e-03 6.42523356e-03 2.33644852e-03 5.25700906e-03
      2.04439238e-02 8.76168162e-03 2.33644852e-03 1.28504671e-02
      2.33644852e-03 5.25700906e-03 2.33644852e-03 3.50467279e-03
      1.40186911e-02 1.28504671e-02 1.63551401e-02 1.40186911e-02
      1.28504671e-02 1.63551401e-02 1.98598132e-02 1.34345787e-02
      8.76168162e-03 9.34579410e-03 1.40186911e-02 1.40186911e-02
      9.34579410e-03 1.63551401e-02 1.69392526e-02 2.33644852e-03
      4.67289705e-03 2.92056054e-03 1.16822422e-02 1.28504671e-02
      7.59345759e-03 9.34579410e-03 2.16121487e-02 5.84112131e-04
      2.74532698e-02 4.08878503e-03 2.57009342e-02 3.50467279e-03
      1.86915882e-02 9.92990658e-03 2.92056054e-03 1.81074757e-02
      4.67289705e-03 7.59345759e-03 2.74532698e-02 7.00934557e-03 0.
      1.69392526e-02 1.57710277e-02 7.00934557e-03 6.42523356e-03
      2.33644852e-03 6.42523356e-03 4.08878503e-03 1.81074757e-02
      9.92990658e-03 1.22663546e-02 6.42523356e-03 1.28504671e-02
      4.67289705e-03 1.34345787e-02 1.75233639e-03 6.42523356e-03
      6.42523356e-03 8.76168162e-03 1.10981306e-02 4.08878503e-03
      1.05140181e-02 5.84112108e-03 2.33644852e-03 1.05140181e-02
      1.69392526e-02 1.57710277e-02 9.34579410e-03 5.84112131e-04
      4.08878503e-03 1.34345787e-02 7.00934557e-03 1.46028036e-02
      2.92056054e-03 1.57710277e-02 7.00934557e-03 2.33644852e-03
      9.34579410e-03 2.92056054e-03</_>
    <_>
      9.06801037e-03 0. 1.25944586e-02 8.56423192e-03 9.06801037e-03
      8.06045346e-03 1.91435777e-02 3.12342569e-02 1.15869017e-02
      3.02267005e-03 2.06549112e-02 2.51889182e-03 2.46851388e-02
      4.53400519e-03 6.54911855e-03 2.01511336e-03 5.54156164e-03
      1.91435777e-02 9.06801037e-03 1.00755668e-03 1.36020156e-02
      2.51889182e-03 2.51889182e-03 2.51889182e-03 3.02267005e-03
      1.41057931e-02 1.51133500e-02 1.46095715e-02 1.36020156e-02
      1.10831233e-02 1.81360207e-02 1.86397992e-02 1.61209069e-02
      7.55667500e-03 7.55667500e-03 1.30982371e-02 1.05793448e-02
      1.15869017e-02 1.66246854e-02 1.86397992e-02 2.01511336e-03
      9.06801037e-03 1.51133502e-03 1.30982371e-02 1.46095715e-02
      8.06045346e-03 1.25944586e-02 2.11586896e-02 2.51889182e-03
      2.82115862e-02 3.02267005e-03 2.16624681e-02 4.03022673e-03
      1.56171285e-02 8.56423192e-03 4.03022673e-03 2.06549112e-02
      5.03778365e-03 9.57178883e-03 2.56926958e-02 7.05289654e-03
      1.51133502e-03 1.96473561e-02 2.21662465e-02 5.03778365e-03
      4.03022673e-03 2.01511336e-03 6.04534009e-03 3.02267005e-03
      1.96473561e-02 9.57178883e-03 1.41057931e-02 4.03022673e-03
      1.30982371e-02 3.52644827e-03 1.41057931e-02 1.51133502e-03
      5.03778365e-03 6.54911855e-03 9.06801037e-03 1.20906802e-02
      7.05289654e-03 9.57178883e-03 6.04534009e-03 4.03022673e-03
      9.57178883e-03 1.41057931e-02 1.20906802e-02 9.57178883e-03
      5.03778341e-04 4.53400519e-03 9.57178883e-03 6.04534009e-03
      1.61209069e-02 1.51133502e-03 1.36020156e-02 9.57178883e-03
      3.02267005e-03 8.56423192e-03 2.01511336e-03</_>
    <_>
      8.48484877e-03 0. 1.57575756e-02 8.48484877e-03 9.09090880e-03
      8.48484877e-03 1.93939395e-02 3.03030312e-02 1.15151517e-02
      3.03030293e-03 1.69696975e-02 6.06060610e-04 2.18181815e-02
      3.63636366e-03 7.87878782e-03 1.81818183e-03 6.06060587e-03
      2.12121215e-02 9.69696976e-03 1.81818183e-03 1.15151517e-02
      1.21212122e-03 4.24242439e-03 3.03030293e-03 1.81818183e-03
      1.39393937e-02 1.51515156e-02 1.69696975e-02 1.63636357e-02
      1.03030307e-02 1.75757576e-02 1.87878795e-02 1.63636357e-02
      9.09090880e-03 7.87878782e-03 1.21212117e-02 1.21212117e-02
      1.21212117e-02 1.57575756e-02 1.93939395e-02 1.81818183e-03
      5.45454537e-03 1.21212122e-03 1.21212117e-02 1.15151517e-02
      9.09090880e-03 1.51515156e-02 2.06060614e-02 1.81818183e-03
      2.96969693e-02 2.42424244e-03 2.36363634e-02 3.03030293e-03
      1.57575756e-02 9.69696976e-03 3.63636366e-03 1.93939395e-02
      5.45454537e-03 1.21212117e-02 2.06060614e-02 9.09090880e-03 0.
      1.57575756e-02 2.18181815e-02 3.63636366e-03 3.63636366e-03
      3.63636366e-03 7.87878782e-03 4.24242439e-03 1.69696975e-02
      1.45454546e-02 1.57575756e-02 4.84848488e-03 1.33333337e-02
      4.24242439e-03 1.39393937e-02 1.21212122e-03 4.84848488e-03
      7.27272732e-03 9.69696976e-03 9.69696976e-03 6.66666683e-03
      1.27272727e-02 4.84848488e-03 3.03030293e-03 7.87878782e-03
      1.45454546e-02 1.09090907e-02 1.03030307e-02 6.06060610e-04
      3.03030293e-03 1.15151517e-02 6.06060587e-03 1.15151517e-02
      6.06060610e-04 1.75757576e-02 7.87878782e-03 3.63636366e-03
      1.21212117e-02 2.42424244e-03</_>
    <_>
      9.52985976e-03 0. 1.39771281e-02 6.98856404e-03 7.62388762e-03
      7.62388762e-03 1.46124521e-02 2.92249043e-02 1.27064800e-02
      3.17662000e-03 1.71537474e-02 1.90597191e-03 2.66836081e-02
      4.44726786e-03 2.54129595e-03 1.27064798e-03 8.25921167e-03
      1.90597195e-02 8.89453571e-03 1.27064798e-03 1.20711559e-02
      3.17662000e-03 5.71791595e-03 2.54129595e-03 1.90597191e-03
      7.62388762e-03 1.39771281e-02 1.65184233e-02 1.77890714e-02
      1.08005079e-02 1.65184233e-02 1.84243955e-02 1.39771281e-02
      7.62388762e-03 7.62388762e-03 1.33418040e-02 1.14358319e-02
      1.14358319e-02 1.84243955e-02 1.90597195e-02 1.27064798e-03
      6.35323999e-03 2.54129595e-03 1.27064800e-02 1.20711559e-02
      7.62388762e-03 1.46124521e-02 2.41423119e-02 6.35323988e-04
      2.85895802e-02 6.98856404e-03 2.66836081e-02 1.90597191e-03
      1.58830993e-02 8.89453571e-03 3.17662000e-03 1.58830993e-02
      3.81194381e-03 8.89453571e-03 2.22363397e-02 1.14358319e-02 0.
      1.77890714e-02 2.03303676e-02 5.08259190e-03 4.44726786e-03
      6.35323999e-03 7.62388762e-03 3.17662000e-03 1.84243955e-02
      1.14358319e-02 1.52477752e-02 5.71791595e-03 1.27064800e-02
      3.81194381e-03 1.65184233e-02 3.81194381e-03 5.08259190e-03
      6.98856404e-03 1.01651838e-02 9.52985976e-03 7.62388762e-03
      7.62388762e-03 6.35323999e-03 3.17662000e-03 1.14358319e-02
      1.33418040e-02 1.08005079e-02 1.20711559e-02 6.35323988e-04
      6.98856404e-03 1.33418040e-02 3.81194381e-03 1.58830993e-02
      6.35323988e-04 1.46124521e-02 8.89453571e-03 3.17662000e-03
      8.25921167e-03 3.81194381e-03</_>
    <_>
      7.32600736e-03 0. 5.49450563e-03 8.69963411e-03 5.03663020e-03
      1.60256419e-02 2.42673997e-02 1.32783884e-02 5.49450563e-03
      2.06043962e-02 1.92307699e-02 1.14468867e-02 7.32600736e-03
      1.41941393e-02 2.74725282e-03 8.69963411e-03 9.61538497e-03
      5.49450563e-03 9.61538497e-03 1.09890113e-02 1.83150191e-02
      9.15750954e-03 2.15201471e-02 6.41025649e-03 1.37362638e-02
      1.83150184e-03 6.41025649e-03 1.41941393e-02 1.05311358e-02
      1.05311358e-02 9.61538497e-03 1.23626376e-02 1.00732604e-02
      4.57875477e-03 1.05311358e-02 2.74725282e-03 9.15750954e-03
      6.86813192e-03 1.32783884e-02 1.46520147e-02 5.95238106e-03
      7.32600736e-03 1.41941393e-02 5.03663020e-03 8.69963411e-03
      5.95238106e-03 1.32783884e-02 1.32783884e-02 2.88461540e-02
      1.32783884e-02 1.64835174e-02 2.60989014e-02 7.32600736e-03
      1.09890113e-02 1.19047621e-02 8.69963411e-03 8.24175868e-03
      6.41025649e-03 4.57875477e-03 1.51098901e-02 1.14468867e-02
      7.32600736e-03 8.69963411e-03 1.19047621e-02 1.64835174e-02
      6.41025649e-03 5.03663020e-03 3.66300368e-03 6.86813192e-03
      1.14468867e-02 3.66300368e-03 6.41025649e-03 2.70146523e-02
      9.61538497e-03 1.51098901e-02 6.41025649e-03 2.01465208e-02
      1.05311358e-02 1.19047621e-02 5.49450563e-03 4.12087934e-03
      1.00732604e-02 5.03663020e-03 5.49450563e-03 9.15750954e-03
      1.05311358e-02 7.78388279e-03 1.23626376e-02 4.57875477e-03
      6.41025649e-03 9.61538497e-03 5.95238106e-03 3.20512825e-03
      3.20512825e-03 1.23626376e-02 8.69963411e-03 7.78388279e-03
      1.05311358e-02 4.12087934e-03 9.61538497e-03</_>
    <_>
      4.18585166e-03 0. 8.37170333e-03 7.11594801e-03 5.44160744e-03
      1.33947255e-02 3.13938893e-02 1.29761407e-02 8.79028905e-03
      2.51151100e-02 1.42318960e-02 1.25575550e-02 1.13017997e-02
      1.54876513e-02 6.27877750e-03 1.46504808e-02 1.13017997e-02
      4.18585166e-03 1.00460444e-02 1.13017997e-02 1.42318960e-02
      1.21389702e-02 1.29761407e-02 9.62745864e-03 1.46504808e-02
      4.60443692e-03 5.86019224e-03 1.04646292e-02 6.69736275e-03
      9.62745864e-03 8.79028905e-03 1.33947255e-02 1.59062371e-02
      5.86019224e-03 6.69736275e-03 2.51151109e-03 1.17203845e-02
      8.37170333e-03 7.11594801e-03 1.46504808e-02 7.11594801e-03
      7.53453327e-03 1.13017997e-02 5.86019224e-03 7.11594801e-03
      8.37170333e-03 1.50690665e-02 9.62745864e-03 3.05567179e-02
      8.37170333e-03 1.42318960e-02 2.38593556e-02 8.79028905e-03
      7.53453327e-03 1.00460444e-02 3.34868138e-03 8.37170333e-03
      6.69736275e-03 5.86019224e-03 1.00460444e-02 9.62745864e-03
      7.53453327e-03 9.62745864e-03 9.62745864e-03 9.62745864e-03
      9.20887385e-03 6.69736275e-03 3.76726664e-03 4.18585166e-03
      9.62745864e-03 5.44160744e-03 7.11594801e-03 2.00920887e-02
      1.29761407e-02 1.08832149e-02 9.62745864e-03 1.21389702e-02
      1.04646292e-02 1.25575550e-02 6.27877750e-03 5.02302218e-03
      8.37170333e-03 8.37170333e-03 5.86019224e-03 6.27877750e-03
      1.33947255e-02 1.00460444e-02 1.92549173e-02 6.27877750e-03
      4.60443692e-03 1.29761407e-02 8.37170333e-03 5.02302218e-03
      5.44160744e-03 1.96735039e-02 5.44160744e-03 6.69736275e-03
      8.79028905e-03 5.44160744e-03 1.38133103e-02</_>
    <_>
      6.44864095e-03 0. 6.44864095e-03 1.10548129e-02 7.83049222e-03
      1.56609844e-02 2.76370328e-02 8.75172671e-03 7.36987544e-03
      1.75034534e-02 1.05941957e-02 9.21234395e-03 1.19760474e-02
      1.70428362e-02 5.52740647e-03 1.24366647e-02 1.10548129e-02
      3.68493772e-03 8.75172671e-03 1.01335784e-02 1.24366647e-02
      8.29110947e-03 2.11883914e-02 6.90925820e-03 9.21234395e-03
      2.76370323e-03 5.52740647e-03 1.01335784e-02 1.28972819e-02
      1.24366647e-02 1.10548129e-02 1.01335784e-02 1.38185164e-02
      4.60617198e-03 5.06678922e-03 3.22432048e-03 1.15154302e-02
      5.06678922e-03 9.67296120e-03 1.01335784e-02 7.83049222e-03
      5.06678922e-03 1.01335784e-02 6.44864095e-03 1.19760474e-02
      7.83049222e-03 8.75172671e-03 1.28972819e-02 2.80976500e-02
      7.83049222e-03 1.33578992e-02 2.90188845e-02 5.06678922e-03
      9.67296120e-03 1.10548129e-02 1.10548129e-02 1.01335784e-02
      7.36987544e-03 7.83049222e-03 1.79640707e-02 1.61216017e-02
      4.60617198e-03 6.44864095e-03 8.29110947e-03 1.61216017e-02
      7.83049222e-03 6.44864095e-03 3.22432048e-03 5.98802371e-03
      1.01335784e-02 5.98802371e-03 7.83049222e-03 4.00736965e-02
      8.29110947e-03 1.47397509e-02 8.75172671e-03 1.15154302e-02
      6.44864095e-03 1.24366647e-02 4.60617198e-03 9.21234395e-03
      8.29110947e-03 7.36987544e-03 8.29110947e-03 7.36987544e-03
      8.29110947e-03 5.52740647e-03 1.10548129e-02 5.52740647e-03
      5.98802371e-03 1.05941957e-02 1.15154302e-02 5.06678922e-03
      4.60617198e-03 1.42791336e-02 8.29110947e-03 1.01335784e-02
      1.19760474e-02 5.52740647e-03 1.05941957e-02</_>
    <_>
      8.09352566e-03 0. 9.44244582e-03 9.44244582e-03 6.29496435e-03
      1.48381302e-02 2.60791369e-02 1.07913669e-02 6.74460456e-03
      2.20323745e-02 1.66366901e-02 1.16906473e-02 9.44244582e-03
      1.30395684e-02 4.94604325e-03 9.44244582e-03 8.99280608e-03
      4.94604325e-03 1.12410076e-02 1.03417272e-02 1.43884895e-02
      9.89208650e-03 2.20323745e-02 6.74460456e-03 1.39388489e-02
      3.59712238e-03 6.29496435e-03 1.39388489e-02 1.48381302e-02
      1.12410076e-02 1.16906473e-02 1.34892091e-02 1.39388489e-02
      3.59712238e-03 8.99280608e-03 2.69784173e-03 7.64388498e-03
      1.03417272e-02 1.07913669e-02 1.30395684e-02 6.74460456e-03
      4.94604325e-03 1.07913669e-02 4.94604325e-03 7.64388498e-03
      4.04676283e-03 1.52877700e-02 1.43884895e-02 2.65287776e-02
      1.30395684e-02 1.34892091e-02 2.47302167e-02 6.29496435e-03
      1.07913669e-02 1.03417272e-02 1.03417272e-02 8.54316540e-03
      5.39568346e-03 2.69784173e-03 1.43884895e-02 1.34892091e-02
      8.99280608e-03 8.09352566e-03 9.44244582e-03 1.48381302e-02
      5.39568346e-03 5.39568346e-03 4.94604325e-03 5.84532367e-03
      1.03417272e-02 5.84532367e-03 5.84532367e-03 2.87769791e-02
      9.44244582e-03 1.79856122e-02 8.09352566e-03 1.75359715e-02
      9.89208650e-03 6.74460456e-03 4.94604325e-03 6.74460456e-03
      1.07913669e-02 5.39568346e-03 8.54316540e-03 7.19424477e-03
      9.89208650e-03 8.99280608e-03 7.64388498e-03 3.59712238e-03
      7.19424477e-03 1.07913669e-02 4.49640304e-03 2.24820152e-03
      4.94604325e-03 1.48381302e-02 8.99280608e-03 4.94604325e-03
      1.12410076e-02 3.59712238e-03 1.30395684e-02</_>
    <_>
      0. 0. 1.94174759e-02 0. 9.70873795e-03 9.70873795e-03
      4.85436916e-02 1.94174759e-02 0. 0. 0. 0. 7.76699036e-02 0. 0. 0.
      9.70873795e-03 0. 1.94174759e-02 0. 0. 9.70873795e-03 0. 0.
      9.70873795e-03 0. 0. 0. 3.88349518e-02 0. 1.94174759e-02
      3.88349518e-02 4.85436916e-02 9.70873795e-03 0. 0. 1.94174759e-02
      1.94174759e-02 0. 9.70873795e-03 0. 0. 0. 9.70873795e-03
      2.91262139e-02 0. 0. 5.82524277e-02 9.70873795e-03 0. 0.
      2.91262139e-02 0. 0. 0. 0. 1.94174759e-02 0. 9.70873795e-03
      1.94174759e-02 0. 0. 1.94174759e-02 0. 0. 0. 0. 0. 0.
      2.91262139e-02 0. 0. 1.94174759e-02 1.94174759e-02 9.70873795e-03
      1.94174759e-02 5.82524277e-02 0. 0. 1.94174759e-02 0.
      1.94174759e-02 0. 3.88349518e-02 0. 9.70873795e-03 0.
      2.91262139e-02 0. 0. 9.70873795e-03 0. 1.94174759e-02
      1.94174759e-02 0. 9.70873795e-03 0. 0. 9.70873795e-03
      1.94174759e-02</_>
    <_>
      9.25608538e-03 0. 4.79945168e-03 1.13129932e-02 1.30270831e-02
      7.88481347e-03 1.37127191e-02 5.14226966e-03 1.16558112e-02
      7.54199550e-03 8.22763145e-03 1.61124449e-02 6.17072359e-03
      5.82790561e-03 1.33699011e-02 1.47411730e-02 1.06273573e-02
      2.74254382e-03 9.59890336e-03 1.09701753e-02 1.81693528e-02
      2.53685303e-02 1.47411730e-02 1.43983550e-02 2.09118966e-02
      1.40555371e-02 7.54199550e-03 6.51354156e-03 6.17072359e-03
      2.74254382e-03 1.09701753e-02 4.45663370e-03 8.22763145e-03
      9.94172134e-03 8.22763145e-03 7.19917752e-03 5.14226966e-03
      1.61124449e-02 5.14226966e-03 6.51354156e-03 1.19986292e-02
      1.09701753e-02 1.57696269e-02 7.54199550e-03 7.54199550e-03
      1.19986292e-02 9.59890336e-03 6.85635954e-03 2.84538921e-02
      2.74254382e-03 7.54199550e-03 7.19917752e-03 1.40555371e-02
      6.51354156e-03 7.88481347e-03 5.82790561e-03 4.45663370e-03
      7.19917752e-03 9.25608538e-03 1.13129932e-02 1.23414472e-02
      6.85635954e-04 7.19917752e-03 8.57044943e-03 6.85635954e-03
      9.25608538e-03 9.59890336e-03 8.91326740e-03 7.19917752e-03
      4.11381572e-03 1.09701753e-02 1.02845393e-02 1.33699011e-02
      6.17072359e-03 7.54199550e-03 1.02845393e-02 3.42817977e-02
      1.16558112e-02 1.50839910e-02 1.16558112e-02 9.94172134e-03
      9.94172134e-03 9.25608538e-03 1.54268090e-02 1.30270831e-02
      1.26842652e-02 5.48508763e-03 3.08536179e-03 7.88481347e-03
      4.45663370e-03 8.57044943e-03 1.78265348e-02 1.23414472e-02
      5.48508763e-03 1.43983550e-02 6.85635954e-03 9.59890336e-03
      8.91326740e-03 9.59890336e-03 1.91978067e-02</_>
    <_>
      1.45659931e-02 0. 1.15933409e-02 1.24851363e-02 1.30796665e-02
      1.24851363e-02 7.13436399e-03 5.94530301e-03 1.24851363e-02
      6.24256814e-03 9.80975013e-03 1.01070153e-02 7.43162911e-03
      2.97265151e-03 1.07015455e-02 8.32342450e-03 1.21878712e-02
      5.05350763e-03 1.04042804e-02 7.13436399e-03 1.27824014e-02
      2.31866818e-02 5.64803788e-03 1.15933409e-02 2.25921515e-02
      1.12960758e-02 1.04042804e-02 7.72889424e-03 9.51248500e-03
      1.78359100e-03 8.62068962e-03 7.13436399e-03 7.72889424e-03
      1.39714619e-02 8.02615937e-03 1.15933409e-02 8.02615937e-03
      1.30796665e-02 1.12960758e-02 4.16171225e-03 1.30796665e-02
      1.93222351e-02 1.09988106e-02 8.62068962e-03 9.21521988e-03
      1.42687280e-02 9.80975013e-03 7.72889424e-03 2.14030910e-02
      4.16171225e-03 1.27824014e-02 4.16171225e-03 1.12960758e-02
      4.45897738e-03 1.48632582e-02 8.62068962e-03 2.67538638e-03
      6.53983327e-03 1.30796665e-02 7.43162911e-03 1.27824014e-02
      1.48632575e-03 1.12960758e-02 9.80975013e-03 8.62068962e-03
      1.15933409e-02 1.07015455e-02 1.27824014e-02 8.62068962e-03
      5.64803788e-03 1.78359095e-02 1.07015455e-02 5.05350763e-03
      8.02615937e-03 7.43162911e-03 1.27824014e-02 1.93222351e-02
      8.02615937e-03 1.15933409e-02 1.01070153e-02 8.91795475e-03
      1.12960758e-02 7.43162911e-03 1.24851363e-02 6.24256814e-03
      8.32342450e-03 7.72889424e-03 2.37812125e-03 1.01070153e-02
      2.97265151e-03 1.42687280e-02 1.09988106e-02 1.54577885e-02
      9.80975013e-03 6.83709839e-03 1.21878712e-02 8.62068962e-03
      1.48632582e-02 1.09988106e-02 1.90249700e-02</_>
    <_>
      1.52368331e-02 0. 7.28718098e-03 8.94335844e-03 1.62305385e-02
      9.60582960e-03 9.60582960e-03 4.30606166e-03 8.61212332e-03
      1.09307710e-02 6.62470981e-03 1.19244782e-02 5.96223911e-03
      2.98111956e-03 1.42431259e-02 1.15932422e-02 1.52368331e-02
      2.64988397e-03 1.15932422e-02 1.05995359e-02 1.02683008e-02
      2.61676051e-02 5.63100353e-03 1.32494196e-02 2.02053655e-02
      1.65617745e-02 7.61841657e-03 7.94965215e-03 1.32494196e-02
      6.62470993e-04 7.94965215e-03 6.95594540e-03 7.94965215e-03
      1.62305385e-02 6.62470981e-03 8.28088727e-03 4.96853236e-03
      1.25869485e-02 7.61841657e-03 4.63729678e-03 7.61841657e-03
      2.21927781e-02 1.12620071e-02 5.29976794e-03 1.25869485e-02
      1.09307710e-02 8.28088727e-03 8.28088727e-03 3.94170247e-02
      2.98111956e-03 9.27459355e-03 3.31235491e-03 9.27459355e-03
      2.98111956e-03 8.28088727e-03 1.02683008e-02 4.63729678e-03
      4.30606166e-03 1.75554808e-02 6.29347423e-03 9.60582960e-03
      6.62470993e-04 7.61841657e-03 1.02683008e-02 1.02683008e-02
      6.95594540e-03 1.15932422e-02 7.94965215e-03 7.28718098e-03
      4.96853236e-03 1.32494196e-02 1.19244782e-02 1.29181845e-02
      6.95594540e-03 6.62470981e-03 9.60582960e-03 2.88174879e-02
      1.29181845e-02 1.29181845e-02 5.96223911e-03 6.95594540e-03
      1.45743620e-02 5.29976794e-03 1.82179529e-02 8.94335844e-03
      5.63100353e-03 8.61212332e-03 2.64988397e-03 1.22557133e-02
      4.96853236e-03 7.94965215e-03 1.12620071e-02 1.62305385e-02
      1.02683008e-02 1.42431259e-02 1.12620071e-02 6.95594540e-03
      1.09307710e-02 1.12620071e-02 1.78867169e-02</_>
    <_>
      3.07838037e-03 0. 9.94553603e-03 1.27871186e-02 1.37343118e-02
      1.49183050e-02 2.84158182e-03 2.36798497e-03 8.05114862e-03
      8.76154378e-03 1.23135215e-02 1.94174759e-02 3.78877576e-03
      4.73596994e-03 3.55197722e-03 1.13663273e-02 1.16031254e-02
      6.63035735e-03 9.94553603e-03 5.91996219e-03 1.32607147e-02
      1.65758934e-02 6.39355928e-03 1.56286992e-02 2.27326546e-02
      9.94553603e-03 6.39355928e-03 8.28794669e-03 5.91996219e-03
      1.18399248e-03 1.01823350e-02 4.97276802e-03 4.97276802e-03
      1.34975137e-02 1.77598856e-02 7.10395444e-03 3.07838037e-03
      1.56286992e-02 5.68316365e-03 5.68316365e-03 1.58654992e-02
      1.11295292e-02 2.29694527e-02 8.05114862e-03 6.63035735e-03
      1.34975137e-02 6.15676073e-03 4.02557431e-03 1.49183050e-02
      1.42079091e-03 1.39711108e-02 4.73596971e-04 1.98910721e-02
      3.78877576e-03 6.86715590e-03 8.99834279e-03 3.31517868e-03
      2.13118643e-02 1.18399244e-02 4.73596994e-03 6.39355928e-03
      1.42079091e-03 1.65758934e-03 3.55197722e-03 7.34075299e-03
      2.17854604e-02 1.13663273e-02 1.68126933e-02 2.08382662e-02
      1.65758934e-03 8.76154378e-03 6.86715590e-03 2.36798497e-03
      3.55197722e-03 1.30239166e-02 8.28794669e-03 1.77598856e-02
      2.10750643e-02 2.15486623e-02 1.32607147e-02 1.13663273e-02
      1.34975137e-02 1.87070798e-02 1.18399244e-02 1.70494914e-02
      1.79966856e-02 7.10395444e-03 1.89438788e-03 6.15676073e-03
      6.63035735e-03 6.86715590e-03 1.34975137e-02 1.72862895e-02
      5.20956656e-03 1.79966856e-02 5.91996219e-03 1.46815060e-02
      9.70873795e-03 9.94553603e-03 1.68126933e-02</_>
    <_>
      2.43578386e-03 0. 8.63596052e-03 1.32860932e-02 1.46147031e-02
      1.39503982e-02 3.76439327e-03 1.99291413e-03 7.75022106e-03
      9.74313542e-03 1.12931794e-02 1.90434009e-02 4.42869775e-03
      3.98582825e-03 4.65013273e-03 1.21789193e-02 1.35075282e-02
      6.86448161e-03 1.08503094e-02 7.08591659e-03 1.28432242e-02
      1.37289632e-02 5.31443767e-03 1.61647480e-02 2.32506637e-02
      9.52170044e-03 6.64304662e-03 8.41452554e-03 4.42869775e-03
      8.85739573e-04 1.06288753e-02 5.97874215e-03 5.97874215e-03
      1.10717444e-02 1.57218780e-02 7.97165651e-03 3.10008856e-03
      1.46147031e-02 6.20017713e-03 6.42161211e-03 1.50575731e-02
      1.32860932e-02 2.08148807e-02 8.63596052e-03 5.75730717e-03
      1.43932682e-02 7.52878655e-03 4.42869775e-03 1.48361381e-02
      1.77147915e-03 1.28432242e-02 6.64304709e-04 2.05934457e-02
      3.98582825e-03 7.08591659e-03 9.74313542e-03 2.87865358e-03
      2.25863587e-02 1.17360493e-02 5.75730717e-03 6.20017713e-03
      1.10717444e-03 2.87865358e-03 3.76439327e-03 7.30735157e-03
      2.12577507e-02 1.01860054e-02 1.97077058e-02 2.28077937e-02
      2.87865358e-03 8.41452554e-03 7.97165651e-03 3.10008856e-03
      5.09300269e-03 1.43932682e-02 8.19309149e-03 1.43932682e-02
      2.03720108e-02 2.43578386e-02 1.28432242e-02 1.10717444e-02
      1.30646583e-02 1.70504861e-02 1.04074404e-02 1.59433130e-02
      1.92648359e-02 7.08591659e-03 8.85739573e-04 6.42161211e-03
      5.31443767e-03 6.20017713e-03 1.19574843e-02 1.72719210e-02
      6.20017713e-03 1.63861830e-02 5.97874215e-03 1.74933560e-02
      7.97165651e-03 9.30026546e-03 1.41718332e-02</_>
    <_>
      4.75118821e-03 0. 9.75243840e-03 1.07526891e-02 1.40035013e-02
      1.25031266e-02 3.25081288e-03 1.25031266e-03 8.50212574e-03
      1.00025013e-02 1.22530637e-02 1.92548148e-02 4.00100043e-03
      4.50112531e-03 6.00150041e-03 1.02525633e-02 1.30032515e-02
      6.75168820e-03 1.35033764e-02 5.75143797e-03 1.35033764e-02
      1.60040017e-02 5.50137553e-03 1.50037520e-02 2.17554402e-02
      7.00175064e-03 7.25181308e-03 6.75168820e-03 6.75168820e-03
      1.00025011e-03 1.17529389e-02 5.25131309e-03 5.75143797e-03
      1.22530637e-02 1.65041275e-02 9.00225062e-03 4.00100043e-03
      1.40035013e-02 5.75143797e-03 6.00150041e-03 1.55038768e-02
      1.25031266e-02 2.27556899e-02 9.50237643e-03 5.75143797e-03
      1.37534393e-02 8.00200086e-03 3.75093799e-03 1.42535642e-02
      1.25031266e-03 1.20030008e-02 2.50062527e-04 1.97549388e-02
      3.00075021e-03 8.75218865e-03 1.00025013e-02 4.25106287e-03
      2.37559397e-02 1.15028759e-02 5.50137553e-03 5.25131309e-03
      7.50187552e-04 2.25056265e-03 2.75068777e-03 7.25181308e-03
      2.27556899e-02 1.20030008e-02 1.80045012e-02 2.40060017e-02
      1.75043766e-03 9.50237643e-03 8.50212574e-03 2.50062533e-03
      4.75118821e-03 1.35033764e-02 8.00200086e-03 1.62540637e-02
      2.12553144e-02 2.22555641e-02 1.32533135e-02 1.15028759e-02
      1.22530637e-02 1.80045012e-02 1.25031266e-02 1.42535642e-02
      1.80045012e-02 8.25206377e-03 7.50187552e-04 6.00150041e-03
      5.00125065e-03 5.50137553e-03 1.07526891e-02 1.87546890e-02
      5.75143797e-03 1.65041275e-02 6.25156332e-03 1.62540637e-02
      7.25181308e-03 1.05026262e-02 1.27531886e-02</_>
    <_>
      4.11522621e-03 0. 2.35155784e-03 2.35155784e-03 2.93944729e-03
      5.29100513e-03 3.82128148e-03 6.46678405e-03 3.23339202e-03
      4.37977649e-02 4.70311567e-03 2.35155784e-03 5.29100513e-03
      2.35155784e-02 3.82128148e-03 3.17460299e-02 1.17577892e-03
      3.82128148e-03 2.93944729e-03 6.61375672e-02 2.05761311e-03
      4.99706063e-03 2.55731922e-02 5.87889459e-04 3.52733675e-03
      1.76366838e-03 2.93944729e-03 3.52733675e-03 5.87889459e-03
      8.55379179e-02 1.76366838e-03 1.35214571e-02 1.11698993e-02
      4.70311567e-03 1.41093470e-02 3.23339202e-03 6.17283955e-03
      6.46678405e-03 2.35155784e-03 2.35155784e-03 2.64550257e-03
      9.99412127e-03 2.05761311e-03 4.70311567e-03 3.23339202e-03
      2.93944729e-03 1.46972365e-03 6.46678405e-03 1.11698993e-02
      8.52439739e-03 2.64550257e-03 6.46678405e-03 2.93944729e-04
      3.23339202e-03 5.58494963e-03 7.05467351e-03 1.35214571e-02
      2.93944729e-03 8.81834188e-04 1.46972369e-02 5.29100513e-03
      9.40623134e-02 8.23045243e-03 3.82128148e-03 5.29100513e-03
      8.81834188e-04 3.23339202e-03 8.81834188e-04 0. 1.35214571e-02
      2.05761311e-03 5.58494963e-03 3.52733675e-03 1.35214571e-02
      2.02821866e-02 4.70311567e-03 1.61669608e-02 1.46972365e-03
      6.17283955e-03 2.64550257e-03 4.70311567e-03 2.35155784e-03
      2.35155784e-03 6.17283955e-03 1.17577892e-03 7.93650746e-03
      6.76072855e-03 8.31863582e-02 2.93944729e-03 9.22986418e-02
      3.23339202e-03 3.82128148e-03 1.17577892e-03 6.46678405e-03
      9.99412127e-03 4.40917071e-03 2.93944729e-03 2.35155784e-03
      4.99706063e-03 6.76072855e-03</_>
    <_>
      0. 0. 0. 1.01010101e-02 0. 1.01010101e-02 4.04040404e-02
      5.05050495e-02 0. 0. 0. 0. 1.01010101e-02 2.02020202e-02 0.
      1.01010101e-02 0. 2.02020202e-02 1.01010101e-02 1.01010101e-02
      1.01010101e-02 1.01010101e-02 1.01010101e-02 0. 0. 2.02020202e-02
      1.01010101e-02 1.01010101e-02 6.06060624e-02 0. 0. 2.02020202e-02
      3.03030312e-02 2.02020202e-02 2.02020202e-02 0. 3.03030312e-02
      2.02020202e-02 0. 0. 0. 0. 1.01010101e-02 0. 1.01010101e-02
      1.01010101e-02 2.02020202e-02 2.02020202e-02 1.01010101e-02 0. 0.
      3.03030312e-02 0. 0. 0. 0. 6.06060624e-02 0. 0. 4.04040404e-02 0.
      0. 2.02020202e-02 3.03030312e-02 0. 0. 0. 0. 0. 3.03030312e-02 0.
      2.02020202e-02 1.01010101e-02 1.01010101e-02 1.01010101e-02 0.
      1.01010101e-02 1.01010101e-02 0. 0. 0. 0. 0. 2.02020202e-02 0. 0.
      3.03030312e-02 3.03030312e-02 1.01010101e-02 0. 0. 1.01010101e-02
      1.01010101e-02 1.01010101e-02 0. 3.03030312e-02 1.01010101e-02
      1.01010101e-02 0. 0.</_>
    <_>
      0. 0. 0. 3.07692308e-02 0. 1.53846154e-02 5.38461544e-02
      1.53846154e-02 0. 0. 7.69230770e-03 0. 1.53846154e-02
      1.53846154e-02 7.69230770e-03 7.69230770e-03 0. 0. 7.69230770e-03
      1.53846154e-02 7.69230770e-03 1.53846154e-02 2.30769236e-02 0.
      7.69230770e-03 0. 0. 0. 1.53846154e-02 7.69230770e-03
      2.30769236e-02 3.84615399e-02 5.38461544e-02 0. 0. 1.53846154e-02
      1.53846154e-02 1.53846154e-02 0. 7.69230770e-03 7.69230770e-03 0.
      7.69230770e-03 7.69230770e-03 1.53846154e-02 0. 1.53846154e-02 0.
      3.07692308e-02 0. 7.69230770e-03 3.84615399e-02 0. 7.69230770e-03
      0. 0. 3.84615399e-02 0. 0. 5.38461544e-02 0. 0. 2.30769236e-02
      1.53846154e-02 0. 0. 0. 0. 0. 5.38461544e-02 0. 7.69230770e-03 0.
      3.84615399e-02 7.69230770e-03 7.69230770e-03 1.53846154e-02 0.
      7.69230770e-03 7.69230770e-03 0. 0. 7.69230770e-03 2.30769236e-02
      0. 7.69230770e-03 7.69230770e-03 1.53846154e-02 7.69230770e-03 0.
      0. 0. 7.69230770e-03 0. 0. 7.69230770e-03 7.69230770e-03
      7.69230770e-03 0. 4.61538471e-02</_>
    <_>
      8.19672085e-03 0. 3.27868834e-02 8.19672085e-03 0. 0.
      2.45901626e-02 8.19672085e-03 8.19672085e-03 0. 0. 0.
      1.63934417e-02 0. 0. 8.19672085e-03 0. 0. 0. 0. 1.63934417e-02
      1.63934417e-02 8.19672085e-03 0. 2.45901626e-02 1.63934417e-02
      8.19672085e-03 0. 5.73770478e-02 8.19672085e-03 1.63934417e-02
      3.27868834e-02 4.09836024e-02 8.19672085e-03 0. 8.19672085e-03
      3.27868834e-02 1.63934417e-02 0. 0. 0. 0. 8.19672085e-03
      3.27868834e-02 8.19672085e-03 2.45901626e-02 2.45901626e-02
      4.09836024e-02 2.45901626e-02 0. 0. 8.19672085e-03 0.
      8.19672085e-03 0. 0. 7.37704858e-02 0. 1.63934417e-02
      4.09836024e-02 8.19672085e-03 0. 0. 1.63934417e-02 0. 0. 0.
      8.19672085e-03 0. 2.45901626e-02 8.19672085e-03 3.27868834e-02
      8.19672085e-03 8.19672085e-03 1.63934417e-02 8.19672085e-03
      1.63934417e-02 0. 0. 8.19672085e-03 8.19672085e-03 0.
      8.19672085e-03 1.63934417e-02 0. 0. 0. 8.19672085e-03
      8.19672085e-03 0. 0. 8.19672085e-03 1.63934417e-02 0. 0.
      8.19672085e-03 0. 0. 8.19672085e-03 8.19672085e-03</_>
    <_>
      1.41352545e-02 0. 5.82039915e-03 4.71175183e-03 6.37472281e-03
      6.09756075e-03 9.70066525e-03 8.86917952e-03 5.82039915e-03
      3.85254994e-02 1.94013305e-03 3.60310427e-03 6.37472281e-03
      2.43902430e-02 1.35809314e-02 2.66075395e-02 3.60310427e-03
      4.43458976e-03 4.98891342e-03 3.99113074e-02 8.31485540e-03
      1.57982260e-02 1.55210644e-02 1.66297122e-03 6.65188488e-03
      4.98891342e-03 8.03769380e-03 5.82039915e-03 1.10864742e-02
      3.43680717e-02 3.60310427e-03 9.70066525e-03 6.65188488e-03
      1.88470073e-02 1.05321510e-02 2.77161854e-03 4.15742770e-03
      8.31485540e-03 3.04878037e-03 3.32594244e-03 5.54323709e-03
      1.21951215e-02 3.60310427e-03 3.32594244e-03 5.82039915e-03
      8.59201793e-03 4.43458976e-03 6.37472281e-03 1.77383590e-02
      7.76053220e-03 4.15742770e-03 7.48337014e-03 3.32594244e-03
      2.77161854e-03 3.88026610e-03 8.59201793e-03 8.86917952e-03
      1.94013305e-03 3.04878037e-03 1.02549884e-02 4.98891342e-03
      6.79046586e-02 6.92904647e-03 1.13636367e-02 8.03769380e-03
      2.77161854e-03 3.60310427e-03 1.66297122e-03 2.77161860e-04
      1.21951215e-02 6.65188488e-03 6.92904647e-03 9.14634112e-03
      1.24722840e-02 1.27494456e-02 6.09756075e-03 2.54988912e-02
      3.32594244e-03 6.09756075e-03 1.94013305e-03 2.77161854e-03
      2.49445671e-03 4.15742770e-03 1.88470073e-02 3.88026610e-03
      1.02549884e-02 6.09756075e-03 4.57317084e-02 8.86917952e-03
      7.23392442e-02 4.98891342e-03 9.70066525e-03 4.15742770e-03
      8.86917952e-03 6.92904647e-03 1.05321510e-02 3.88026610e-03
      3.88026610e-03 6.37472281e-03 1.21951215e-02</_>
    <_>
      2.84427591e-03 0. 8.76985118e-03 1.51694715e-02 1.58805400e-02
      1.84877925e-02 4.74045984e-03 2.60725291e-03 1.01919882e-02
      7.58473575e-03 8.53282772e-03 1.91988628e-02 4.50343685e-03
      4.74045984e-03 5.21450583e-03 1.20881721e-02 7.58473575e-03
      6.39962079e-03 7.82175921e-03 7.58473575e-03 1.25622191e-02
      1.06660351e-02 6.87366677e-03 1.44584030e-02 1.54064950e-02
      1.44584030e-02 5.68855181e-03 6.63664378e-03 4.02939087e-03
      3.31832189e-03 7.58473575e-03 5.68855181e-03 2.37022992e-03
      1.04290117e-02 1.20881721e-02 9.24389623e-03 1.65916095e-03
      1.96729079e-02 7.58473575e-03 4.74045984e-03 1.65916085e-02
      1.65916085e-02 2.72576436e-02 9.48091969e-03 7.11068977e-03
      1.87248159e-02 7.34771276e-03 4.26641386e-03 6.87366677e-03
      6.87366677e-03 8.76985118e-03 1.89618394e-03 1.73026789e-02
      1.42213795e-03 7.58473575e-03 8.53282772e-03 2.37022992e-03
      2.98648961e-02 1.54064950e-02 5.45152882e-03 5.21450583e-03
      2.60725291e-03 1.18511496e-03 3.79236788e-03 8.29580426e-03
      1.84877925e-02 9.95496567e-03 1.89618394e-02 2.39393227e-02
      2.84427591e-03 7.34771276e-03 4.97748284e-03 1.18511496e-03
      4.74045984e-03 1.20881721e-02 6.63664378e-03 1.35103110e-02
      1.94358863e-02 2.37022992e-02 1.80137474e-02 1.18511496e-02
      6.39962079e-03 1.87248159e-02 9.95496567e-03 1.23251956e-02
      2.13320702e-02 8.76985118e-03 1.65916095e-03 5.45152882e-03
      9.24389623e-03 5.21450583e-03 1.11400802e-02 2.32282542e-02
      5.68855181e-03 2.01469548e-02 4.74045984e-03 1.73026789e-02
      6.16259780e-03 9.71794315e-03 1.91988628e-02</_>
    <_>
      4.26921155e-03 0. 6.78051217e-03 1.13008535e-02 1.70768462e-02
      1.65745858e-02 3.51582118e-03 1.75791059e-03 1.18031139e-02
      7.03164237e-03 8.53842311e-03 1.98392775e-02 2.76243081e-03
      5.52486163e-03 6.02712203e-03 1.50678046e-02 1.15519837e-02
      5.77599183e-03 8.53842311e-03 8.28729291e-03 1.38121545e-02
      1.65745858e-02 5.27373189e-03 1.35610243e-02 2.00904068e-02
      1.63234547e-02 5.52486163e-03 5.77599183e-03 4.26921155e-03
      1.50678051e-03 9.29181278e-03 6.52938243e-03 3.26469122e-03
      1.73279755e-02 1.30587649e-02 9.54294298e-03 2.76243081e-03
      1.53189348e-02 4.52034175e-03 4.01808135e-03 1.60723254e-02
      2.03415360e-02 2.18483172e-02 9.29181278e-03 8.28729291e-03
      1.55700650e-02 9.29181278e-03 4.77147149e-03 1.40632847e-02
      3.51582118e-03 9.04068351e-03 3.51582118e-03 1.85836256e-02
      3.01356101e-03 6.27825223e-03 9.04068351e-03 1.00452034e-03
      2.46107485e-02 1.40632847e-02 4.77147149e-03 4.01808135e-03
      3.51582118e-03 3.51582118e-03 4.01808135e-03 8.03616270e-03
      2.51130089e-02 7.53390230e-03 1.28076347e-02 1.68257151e-02
      3.26469122e-03 1.10497233e-02 8.28729291e-03 3.01356101e-03
      7.28277257e-03 6.52938243e-03 7.53390230e-03 1.43144149e-02
      1.88347567e-02 2.05926672e-02 1.15519837e-02 1.10497233e-02
      9.04068351e-03 1.70768462e-02 1.63234547e-02 1.50678046e-02
      1.78302359e-02 6.78051217e-03 7.53390254e-04 6.27825223e-03
      9.54294298e-03 4.52034175e-03 1.33098941e-02 1.58211961e-02
      4.52034175e-03 1.70768462e-02 9.29181278e-03 1.50678046e-02
      5.02260169e-03 1.07985940e-02 1.98392775e-02</_>
    <_>
      1.45132737e-02 0. 5.66371670e-03 6.37168111e-03 1.13274334e-02
      7.07964599e-03 1.30973449e-02 5.30973449e-03 9.91150457e-03
      7.78761040e-03 7.07964599e-03 1.38053093e-02 8.14159308e-03
      6.37168111e-03 1.20353978e-02 1.09734507e-02 1.27433622e-02
      4.24778741e-03 1.09734507e-02 9.20353923e-03 1.66371670e-02
      3.00884955e-02 1.13274334e-02 1.30973449e-02 2.15929206e-02
      1.80530977e-02 9.20353923e-03 7.07964599e-03 4.95575229e-03
      2.47787614e-03 1.06194690e-02 4.60176961e-03 7.78761040e-03
      1.55752208e-02 9.55752190e-03 8.49557482e-03 4.60176961e-03
      1.16814161e-02 8.84955749e-03 5.66371670e-03 9.91150457e-03
      1.41592920e-02 1.38053093e-02 5.30973449e-03 1.13274334e-02
      1.30973449e-02 1.06194690e-02 3.89380520e-03 3.64601761e-02
      6.01769891e-03 1.13274334e-02 1.02654863e-02 1.45132737e-02
      4.95575229e-03 9.55752190e-03 6.72566378e-03 2.47787614e-03
      5.30973449e-03 8.84955749e-03 8.14159308e-03 1.09734507e-02
      1.06194685e-03 9.55752190e-03 7.78761040e-03 1.16814161e-02
      1.41592920e-02 8.14159308e-03 8.14159308e-03 5.30973449e-03
      4.60176961e-03 9.55752190e-03 1.20353978e-02 1.62831862e-02
      3.89380520e-03 9.55752190e-03 6.72566378e-03 2.30088495e-02
      1.06194690e-02 1.20353978e-02 8.14159308e-03 5.66371670e-03
      1.20353978e-02 5.30973449e-03 1.23893805e-02 9.91150457e-03
      6.37168111e-03 8.49557482e-03 2.12389370e-03 9.55752190e-03
      3.53982300e-03 1.02654863e-02 1.73451323e-02 1.59292035e-02
      9.20353923e-03 1.16814161e-02 6.37168111e-03 1.16814161e-02
      1.27433622e-02 7.43362820e-03 2.33628321e-02</_>
    <_>
      5.70264738e-03 0. 9.36863571e-03 5.29531576e-03 4.88798367e-03
      9.77596734e-03 2.19959263e-02 8.55397154e-03 8.14663991e-03
      2.28105895e-02 1.46639515e-02 1.22199589e-02 1.14052948e-02
      2.03665979e-02 7.73930736e-03 1.58859473e-02 9.77596734e-03
      3.25865578e-03 9.36863571e-03 1.26272915e-02 1.42566189e-02
      1.50712831e-02 1.95519347e-02 6.92464365e-03 1.46639515e-02
      2.85132369e-03 3.25865578e-03 1.30346231e-02 9.36863571e-03
      1.01832990e-02 1.09979631e-02 9.77596734e-03 1.30346231e-02
      7.33197574e-03 6.92464365e-03 1.62932789e-03 9.77596734e-03
      4.07331996e-03 1.38492873e-02 1.42566189e-02 8.96130316e-03
      6.51731156e-03 9.77596734e-03 4.88798367e-03 7.73930736e-03
      8.14663991e-03 1.18126273e-02 9.36863571e-03 3.86965387e-02
      1.05906315e-02 1.01832990e-02 2.11812630e-02 8.96130316e-03
      9.36863571e-03 1.26272915e-02 7.73930736e-03 6.51731156e-03
      6.10997947e-03 3.25865578e-03 1.38492873e-02 9.77596734e-03
      8.14663991e-03 8.14663991e-03 1.18126273e-02 1.26272915e-02
      6.92464365e-03 4.48065158e-03 4.07331996e-03 5.70264738e-03
      1.42566189e-02 4.48065158e-03 7.73930736e-03 2.64765788e-02
      1.38492873e-02 1.22199589e-02 4.88798367e-03 2.28105895e-02
      8.55397154e-03 8.14663991e-03 4.88798367e-03 7.33197574e-03
      7.33197574e-03 4.07331996e-03 8.55397154e-03 6.92464365e-03
      8.14663991e-03 4.48065158e-03 1.30346231e-02 4.48065158e-03
      9.36863571e-03 1.14052948e-02 6.92464365e-03 6.10997947e-03
      6.51731156e-03 2.28105895e-02 1.09979631e-02 6.92464365e-03
      7.73930736e-03 5.70264738e-03 1.01832990e-02</_>
    <_>
      1.66270789e-02 0. 7.52177369e-03 7.91765656e-03 1.34600159e-02
      9.10530519e-03 1.38558988e-02 7.91765656e-03 1.14806015e-02
      5.93824219e-03 7.12589081e-03 1.06888358e-02 5.93824219e-03
      5.14647644e-03 1.14806015e-02 9.50118713e-03 1.42517816e-02
      3.95882828e-03 9.89707001e-03 7.52177369e-03 1.30641330e-02
      2.17735544e-02 1.30641330e-02 1.02929529e-02 2.01900229e-02
      1.66270789e-02 9.50118713e-03 6.73000794e-03 9.10530519e-03
      1.97941414e-03 9.50118713e-03 7.91765656e-03 6.73000794e-03
      1.42517816e-02 5.54235931e-03 8.70942231e-03 5.93824219e-03
      1.50435474e-02 6.33412506e-03 5.14647644e-03 6.33412506e-03
      1.70229618e-02 9.50118713e-03 8.31353944e-03 1.38558988e-02
      1.22723673e-02 6.73000794e-03 7.12589081e-03 2.73159146e-02
      4.75059357e-03 1.14806015e-02 9.10530519e-03 1.06888358e-02
      5.93824219e-03 1.14806015e-02 9.89707001e-03 2.77117966e-03
      4.75059357e-03 6.33412506e-03 7.12589081e-03 1.38558988e-02
      3.95882817e-04 1.10847186e-02 1.42517816e-02 1.46476645e-02
      5.14647644e-03 1.18764844e-02 8.70942231e-03 4.75059357e-03
      9.50118713e-03 9.50118713e-03 1.02929529e-02 1.78147275e-02
      4.35471116e-03 8.70942231e-03 1.10847186e-02 2.49406174e-02
      1.22723673e-02 7.91765656e-03 5.54235931e-03 7.52177369e-03
      1.62311960e-02 5.93824219e-03 1.42517816e-02 1.18764844e-02
      1.06888358e-02 8.70942231e-03 2.77117966e-03 1.06888358e-02
      7.52177369e-03 1.22723673e-02 1.34600159e-02 1.14806015e-02
      1.22723673e-02 1.10847186e-02 1.10847186e-02 1.06888358e-02
      1.06888358e-02 1.02929529e-02 1.42517816e-02</_>
    <_>
      2.12765951e-02 0. 2.12765951e-02 0. 0. 0. 1.06382973e-01
      4.25531901e-02 0. 0. 2.12765951e-02 0. 0. 0. 2.12765951e-02 0. 0.
      0. 2.12765951e-02 0. 2.12765951e-02 0. 0. 0. 0. 0. 0. 0. 0.
      8.51063803e-02 0. 0. 0. 0. 0. 0. 0. 0. 2.12765951e-02
      8.51063803e-02 0. 0. 0. 0. 0. 0. 2.12765951e-02 4.25531901e-02 0.
      0. 0. 1.06382973e-01 0. 2.12765951e-02 8.51063803e-02 0. 0.
      4.25531901e-02 2.12765951e-02 2.12765951e-02 0. 0. 0.
      4.25531901e-02 0. 0. 0. 0. 0. 0. 2.12765951e-02 2.12765951e-02 0.
      0. 0. 0. 0. 0. 0. 0. 0. 0. 0. 0. 0. 0. 2.12765951e-02
      2.12765951e-02 0. 0. 0. 0. 0. 0. 0. 2.12765951e-02 0. 0.
      2.12765951e-02 0.</_>
    <_>
      0. 0. 0. 0. 0. 0. 3.17460336e-02 1.58730168e-02 1.58730168e-02 0.
      0. 0. 0. 0. 1.58730168e-02 1.58730168e-02 0. 0. 1.58730168e-02
      1.58730168e-02 1.58730168e-02 1.58730168e-02 0. 0. 0. 0. 0. 0.
      1.58730168e-02 9.52381045e-02 1.58730168e-02 3.17460336e-02
      1.58730168e-02 0. 0. 0. 1.58730168e-02 0. 0. 1.58730168e-02 0. 0.
      0. 1.58730168e-02 1.58730168e-02 0. 1.58730168e-02 3.17460336e-02
      3.17460336e-02 0. 0. 0. 0. 0. 1.58730168e-02 0. 0. 0. 0.
      1.58730168e-02 1.58730168e-02 2.22222239e-01 1.58730168e-02
      3.17460336e-02 0. 0. 1.58730168e-02 0. 0. 1.58730168e-02 0. 0.
      3.17460336e-02 3.17460336e-02 0. 0. 1.58730168e-02 0. 0. 0. 0. 0.
      0. 0. 0. 1.58730168e-02 0. 0. 0. 0. 0. 1.58730168e-02 0.
      1.58730168e-02 0. 3.17460336e-02 0. 0. 0. 1.58730168e-02</_>
    <_>
      0. 0. 0. 1.42857144e-02 0. 0. 1.42857144e-02 0. 0. 0. 0. 0. 0. 0.
      0. 0. 0. 0. 5.71428575e-02 0. 0. 1.42857144e-02 0. 0.
      1.42857144e-02 0. 0. 0. 1.42857144e-02 1.28571436e-01
      2.85714287e-02 2.85714287e-02 1.42857144e-02 1.42857144e-02 0. 0.
      2.85714287e-02 0. 1.42857144e-02 0. 0. 1.42857144e-02 0. 0.
      1.42857144e-02 0. 0. 0. 2.85714287e-02 0. 1.42857144e-02 0. 0.
      1.42857144e-02 0. 0. 0. 0. 0. 4.28571440e-02 1.42857144e-02
      1.28571436e-01 1.42857144e-02 2.85714287e-02 2.85714287e-02 0. 0.
      0. 0. 0. 1.42857144e-02 1.42857144e-02 5.71428575e-02
      2.85714287e-02 0. 2.85714287e-02 0. 0. 0. 0. 1.42857144e-02 0. 0.
      0. 0. 0. 0. 1.42857144e-02 1.42857144e-02 0. 0. 0. 0.
      2.85714287e-02 0. 2.85714287e-02 0. 1.42857144e-02 0.
      1.42857144e-02</_>
    <_>
      1.52365677e-02 0. 8.42020847e-03 7.61828385e-03 8.82117078e-03
      8.01924616e-03 1.28307939e-02 6.41539693e-03 8.42020847e-03
      7.21732154e-03 8.01924616e-03 1.56375300e-02 8.42020847e-03
      5.61347231e-03 1.24298315e-02 1.16279069e-02 1.44346431e-02
      4.41058539e-03 1.36327185e-02 8.42020847e-03 1.48356054e-02
      2.96712108e-02 1.04250200e-02 1.32317562e-02 2.08500400e-02
      1.44346431e-02 1.16279069e-02 7.21732154e-03 5.61347231e-03
      2.00481154e-03 1.12269446e-02 5.61347231e-03 8.42020847e-03
      1.40336808e-02 9.62309539e-03 7.21732154e-03 4.00962308e-03
      1.08259823e-02 9.22213309e-03 5.21251000e-03 9.62309539e-03
      1.32317562e-02 1.32317562e-02 6.01443462e-03 1.08259823e-02
      1.48356054e-02 1.12269446e-02 4.81154770e-03 3.56856436e-02
      4.41058539e-03 1.08259823e-02 9.22213309e-03 1.56375300e-02
      6.81635924e-03 9.62309539e-03 6.41539693e-03 3.20769846e-03
      3.60866077e-03 9.22213309e-03 8.01924616e-03 1.04250200e-02
      8.01924616e-04 8.01924616e-03 1.08259823e-02 1.12269446e-02
      1.12269446e-02 8.42020847e-03 6.41539693e-03 6.01443462e-03
      4.81154770e-03 8.01924616e-03 1.00240577e-02 2.16519646e-02
      4.41058539e-03 8.01924616e-03 8.42020847e-03 2.20529269e-02
      1.28307939e-02 1.08259823e-02 8.82117078e-03 6.81635924e-03
      1.12269446e-02 4.00962308e-03 1.36327185e-02 1.12269446e-02
      7.21732154e-03 8.82117078e-03 2.00481154e-03 9.22213309e-03
      5.21251000e-03 9.22213309e-03 1.80433039e-02 1.48356054e-02
      8.42020847e-03 8.82117078e-03 5.21251000e-03 1.28307939e-02
      1.32317562e-02 8.42020847e-03 2.08500400e-02</_>
    <_>
      3.27868834e-02 0. 0. 1.63934417e-02 0. 0. 1.63934417e-02 0.
      1.63934417e-02 1.63934417e-02 0. 0. 0. 3.27868834e-02
      1.63934417e-02 0. 0. 1.63934417e-02 0. 1.63934417e-02
      1.63934417e-02 0. 0. 0. 0. 1.63934417e-02 3.27868834e-02 0. 0. 0.
      1.63934417e-02 4.91803251e-02 0. 0. 0. 0. 0. 0. 1.63934417e-02 0.
      0. 0. 0. 1.63934417e-02 3.27868834e-02 0. 1.63934417e-02
      3.27868834e-02 3.27868834e-02 0. 0. 3.27868834e-02 0. 0. 0. 0.
      1.63934417e-02 0. 0. 3.27868834e-02 0. 9.83606502e-02
      3.27868834e-02 1.47540972e-01 1.63934417e-02 0. 0. 0. 0. 0.
      1.63934417e-02 0. 0. 0. 1.63934417e-02 1.63934417e-02 0. 0.
      1.63934417e-02 0. 0. 0. 0. 0. 0. 0. 0. 1.63934417e-02 0. 0. 0.
      3.27868834e-02 0. 3.27868834e-02 0. 1.63934417e-02 0. 0. 0. 0.</_>
    <_>
      4.22535203e-02 0. 1.40845068e-02 1.40845068e-02 0. 0. 0.
      1.40845068e-02 1.40845068e-02 4.22535203e-02 1.40845068e-02 0.
      2.81690136e-02 2.81690136e-02 2.81690136e-02 1.40845068e-02 0. 0.
      0. 0. 1.40845068e-02 0. 0. 0. 0. 2.81690136e-02 1.40845068e-02 0.
      1.40845068e-02 4.22535203e-02 1.40845068e-02 1.40845068e-02 0. 0.
      0. 0. 0. 0. 1.40845068e-02 1.40845068e-02 0. 0. 0. 2.81690136e-02
      1.40845068e-02 0. 0. 0. 7.04225302e-02 0. 1.40845068e-02 0. 0.
      1.40845068e-02 0. 0. 0. 0. 1.40845068e-02 1.40845068e-02
      1.40845068e-02 1.12676054e-01 1.40845068e-02 5.63380271e-02 0. 0.
      0. 0. 0. 1.40845068e-02 0. 0. 0. 1.40845068e-02 0. 1.40845068e-02
      0. 0. 1.40845068e-02 0. 0. 0. 0. 2.81690136e-02 0. 0. 0.
      2.81690136e-02 0. 0. 1.40845068e-02 0. 0. 1.40845068e-02 0.
      1.40845068e-02 0. 1.40845068e-02 1.40845068e-02 2.81690136e-02</_>
    <_>
      0. 0. 1.36986300e-02 0. 0. 0. 1.36986300e-02 1.36986300e-02 0. 0.
      1.36986300e-02 0. 0. 0. 2.73972601e-02 0. 0. 0. 1.36986300e-02 0.
      1.36986300e-02 0. 0. 0. 0. 1.36986300e-02 1.36986300e-02 0.
      1.36986300e-02 6.84931502e-02 0. 6.84931502e-02 0. 2.73972601e-02
      0. 0. 1.36986300e-02 0. 1.36986300e-02 0. 0. 1.36986300e-02 0. 0.
      0. 0. 1.36986300e-02 0. 5.47945201e-02 0. 0. 4.10958901e-02 0. 0.
      1.36986300e-02 0. 1.36986300e-02 0. 0. 2.73972601e-02
      1.36986300e-02 1.09589040e-01 0. 1.23287670e-01 0. 0. 0. 0. 0.
      2.73972601e-02 1.36986300e-02 1.36986300e-02 1.36986300e-02
      2.73972601e-02 1.36986300e-02 1.36986300e-02 0. 0. 0. 0.
      1.36986300e-02 0. 0. 1.36986300e-02 0. 0. 0. 2.73972601e-02 0. 0.
      0. 0. 0. 1.36986300e-02 0. 2.73972601e-02 0. 0. 1.36986300e-02 0.</_>
    <_>
      3.95256933e-03 0. 7.90513866e-03 3.95256933e-03 3.95256933e-03
      1.97628476e-02 1.97628476e-02 0. 7.90513866e-03 2.37154160e-02
      7.90513866e-03 7.90513866e-03 7.90513866e-03 1.58102773e-02
      3.95256933e-03 1.97628476e-02 0. 0. 0. 3.16205546e-02
      7.90513866e-03 1.58102773e-02 3.95256933e-03 0. 1.18577080e-02
      2.37154160e-02 3.95256933e-03 1.58102773e-02 1.18577080e-02
      2.76679844e-02 0. 1.18577080e-02 0. 3.16205546e-02 7.90513866e-03
      1.97628476e-02 0. 7.90513866e-03 7.90513866e-03 0. 7.90513866e-03
      7.90513866e-03 7.90513866e-03 3.95256933e-03 3.16205546e-02
      1.18577080e-02 0. 1.97628476e-02 3.55731249e-02 2.37154160e-02 0.
      4.34782617e-02 0. 0. 3.95256933e-03 7.90513866e-03 0.
      1.58102773e-02 0. 7.90513866e-03 7.90513866e-03 0. 7.90513866e-03
      1.97628476e-02 7.90513866e-03 0. 7.90513866e-03 3.95256933e-03 0.
      0. 3.95256933e-03 1.18577080e-02 5.13834022e-02 0. 0.
      7.90513866e-03 6.71936795e-02 0. 7.90513866e-03 3.95256933e-03 0.
      3.95256933e-03 3.95256933e-03 1.97628476e-02 0. 1.97628476e-02 0.
      3.95256933e-03 0. 3.95256933e-03 1.97628476e-02 7.90513866e-03
      7.90513866e-03 3.95256933e-03 3.95256933e-03 1.58102773e-02 0.
      1.18577080e-02 7.90513866e-03 3.16205546e-02</_>
    <_>
      4.36681230e-03 0. 8.73362459e-03 1.06051154e-02 1.06051154e-02
      1.12289451e-02 1.87149085e-02 2.49532126e-02 4.99064242e-03
      3.74298170e-03 1.87149085e-02 1.87149085e-03 2.18340605e-02
      8.10979400e-03 9.98128485e-03 4.99064242e-03 4.36681230e-03
      1.06051154e-02 6.86213328e-03 3.74298170e-03 9.35745426e-03
      1.24766061e-03 5.61447255e-03 3.11915157e-03 4.36681230e-03
      1.24766063e-02 2.12102309e-02 1.74672492e-02 1.18527757e-02
      1.62195880e-02 1.06051154e-02 2.12102309e-02 8.73362459e-03
      6.23830315e-03 6.23830315e-03 1.62195880e-02 1.55957574e-02
      7.48596340e-03 1.43480971e-02 1.68434177e-02 3.11915157e-03
      1.06051154e-02 1.87149085e-03 1.74672492e-02 1.49719268e-02
      9.35745426e-03 1.12289451e-02 2.05863994e-02 5.61447255e-03
      2.74485331e-02 6.86213328e-03 2.68247034e-02 1.87149085e-03
      1.12289451e-02 8.73362459e-03 2.49532121e-03 1.74672492e-02
      6.23830315e-03 1.24766063e-02 2.68247034e-02 1.06051154e-02 0.
      1.80910788e-02 2.37055514e-02 8.10979400e-03 6.86213328e-03
      9.35745426e-03 6.86213328e-03 4.99064242e-03 1.18527757e-02
      8.73362459e-03 1.55957574e-02 3.11915157e-03 1.12289451e-02
      6.23830315e-03 8.73362459e-03 1.87149085e-03 1.87149085e-03
      3.74298170e-03 8.10979400e-03 9.98128485e-03 4.99064242e-03
      6.23830315e-03 6.23830315e-03 3.11915157e-03 6.86213328e-03
      1.49719268e-02 1.55957574e-02 1.31004360e-02 1.24766061e-03
      7.48596340e-03 1.12289451e-02 8.10979400e-03 1.49719268e-02
      3.11915157e-03 1.74672492e-02 5.61447255e-03 5.61447255e-03
      1.31004360e-02 2.49532121e-03</_>
    <_>
      1.69491526e-02 0. 6.77966094e-03 0. 3.38983047e-03 6.77966094e-03
      3.72881368e-02 3.38983047e-03 0. 1.35593219e-02 1.01694912e-02
      6.77966094e-03 3.38983047e-03 1.01694912e-02 6.77966094e-03
      3.38983047e-03 0. 3.38983047e-03 1.01694912e-02 2.37288140e-02
      6.77966094e-03 1.01694912e-02 1.01694912e-02 0. 0. 2.37288140e-02
      1.69491526e-02 3.38983047e-03 1.35593219e-02 4.74576280e-02 0. 0.
      0. 2.71186437e-02 6.77966094e-03 6.77966094e-03 3.38983047e-03
      3.38983047e-03 6.77966094e-03 3.38983047e-03 0. 3.38983047e-03
      6.77966094e-03 6.77966094e-03 3.05084735e-02 6.77966094e-03 0.
      1.35593219e-02 6.10169470e-02 6.77966094e-03 3.38983047e-03
      1.69491526e-02 0. 0. 0. 1.01694912e-02 0. 6.77966094e-03
      3.38983047e-03 3.38983047e-03 3.38983047e-03 3.38983047e-03
      6.77966094e-03 3.05084735e-02 0. 3.38983047e-03 1.01694912e-02 0.
      0. 0. 6.77966094e-03 2.03389823e-02 3.72881368e-02 3.38983047e-03
      0. 1.01694912e-02 5.76271191e-02 0. 1.01694912e-02 3.38983047e-03
      6.77966094e-03 6.77966094e-03 1.01694912e-02 2.71186437e-02 0.
      2.03389823e-02 3.38983047e-03 5.76271191e-02 1.69491526e-02
      6.77966094e-03 6.77966094e-03 1.01694912e-02 0. 1.01694912e-02
      1.35593219e-02 2.03389823e-02 0. 0. 1.01694912e-02 3.05084735e-02</_>
    <_>
      1.12044821e-02 0. 1.71568636e-02 5.95238106e-03 1.01540620e-02
      1.12044821e-02 1.05042022e-03 3.50140058e-03 2.17086840e-02
      7.00280129e-04 1.33053223e-02 7.00280129e-04 4.55182092e-03
      4.20168089e-03 8.40336177e-03 2.45098048e-03 7.00280117e-03
      1.22549022e-02 1.05042020e-02 1.75070029e-03 8.05322174e-03
      2.10084044e-03 7.00280129e-04 3.50140058e-03 1.05042022e-03
      3.22128870e-02 2.20588241e-02 6.65266113e-03 1.40056023e-02
      3.50140058e-03 1.33053223e-02 7.70308124e-03 1.22549022e-02
      1.75070036e-02 2.80112051e-03 3.71148475e-02 1.15546221e-02
      7.70308124e-03 2.06582639e-02 7.70308124e-03 3.50140058e-03
      1.26050422e-02 3.15126055e-03 2.38095243e-02 1.78571437e-02
      1.19047621e-02 9.10364185e-03 9.80392192e-03 4.90196096e-03
      3.85154062e-03 4.90196096e-03 1.75070029e-03 3.85154062e-03
      3.50140058e-03 1.64565835e-02 1.05042020e-02 5.60224103e-03
      9.45378188e-03 2.20588241e-02 2.41596643e-02 1.15546221e-02 0.
      2.34593842e-02 6.30252110e-03 5.60224103e-03 5.95238106e-03
      1.50560224e-02 1.64565835e-02 5.60224103e-03 1.36554623e-02
      1.89075638e-02 1.89075638e-02 5.25210099e-03 1.36554623e-02
      2.10084044e-03 1.78571437e-02 1.40056026e-03 2.80112051e-03
      3.15126055e-03 2.76610646e-02 2.90616248e-02 4.55182092e-03
      1.12044821e-02 5.60224103e-03 8.75350181e-03 6.65266113e-03
      7.70308124e-03 1.40056026e-03 2.69607846e-02 3.50140064e-04
      4.90196096e-03 3.50140058e-03 1.05042020e-02 2.20588241e-02
      3.50140058e-03 1.47058824e-02 9.45378188e-03 6.65266113e-03
      2.20588241e-02 2.45098048e-03</_>
    <_>
      1.79726817e-02 0. 1.07836090e-02 7.54852640e-03 1.22214239e-02
      1.00647015e-02 2.15672189e-03 4.67289751e-03 1.72537751e-02
      3.59453633e-03 1.47375995e-02 3.59453633e-03 5.03235077e-03
      5.39180450e-03 9.34579503e-03 2.87562911e-03 9.34579503e-03
      1.18619697e-02 9.34579503e-03 4.31344379e-03 7.54852640e-03
      2.51617539e-03 1.43781456e-03 3.95399006e-03 1.79726817e-03
      4.67289723e-02 2.37239394e-02 7.90798012e-03 1.40186921e-02
      1.79726817e-03 1.40186921e-02 1.22214239e-02 1.07836090e-02
      1.76132284e-02 7.54852640e-03 3.55859101e-02 1.11430632e-02
      1.00647015e-02 1.54565061e-02 5.75125823e-03 3.23508284e-03
      1.22214239e-02 2.15672189e-03 2.69590225e-02 1.72537751e-02
      1.36592379e-02 6.47016568e-03 9.34579503e-03 8.26743338e-03
      2.87562911e-03 6.11071195e-03 1.43781456e-03 3.95399006e-03
      5.03235077e-03 1.15025165e-02 8.26743338e-03 3.23508284e-03
      1.22214239e-02 1.94104966e-02 2.51617543e-02 1.65348668e-02
      3.59453639e-04 2.48023011e-02 3.95399006e-03 6.47016568e-03
      3.59453633e-03 8.62688757e-03 1.32997846e-02 5.39180450e-03
      1.07836090e-02 1.79726817e-02 1.61754135e-02 3.95399006e-03
      1.50970528e-02 2.15672189e-03 1.94104966e-02 2.87562911e-03
      3.95399006e-03 3.23508284e-03 2.62401160e-02 2.19266713e-02
      3.59453633e-03 1.50970528e-02 9.70524829e-03 5.75125823e-03
      8.62688757e-03 6.11071195e-03 3.59453639e-04 2.48023011e-02
      3.59453639e-04 5.75125823e-03 3.59453633e-03 6.47016568e-03
      1.72537751e-02 3.95399006e-03 1.22214239e-02 6.82961894e-03
      6.11071195e-03 2.01294031e-02 3.95399006e-03</_>
    <_>
      2.11720224e-02 0. 1.13421548e-02 4.91493382e-03 1.28544420e-02
      1.09640826e-02 3.78071819e-03 5.29300561e-03 1.89035907e-02
      7.56143651e-04 1.43667292e-02 1.89035910e-03 2.64650281e-03
      3.02457460e-03 1.28544420e-02 3.02457460e-03 7.56143639e-03
      1.09640826e-02 1.13421548e-02 2.64650281e-03 6.42722100e-03
      1.89035910e-03 1.13421550e-03 3.02457460e-03 1.89035910e-03
      3.21361050e-02 2.30623819e-02 9.07372404e-03 1.51228728e-02
      2.64650281e-03 1.62570886e-02 8.31758045e-03 9.82986763e-03
      1.58790164e-02 4.91493382e-03 4.15879004e-02 1.17202261e-02
      1.02079390e-02 1.70132313e-02 6.80529280e-03 4.15879022e-03
      1.13421548e-02 3.02457460e-03 2.38185246e-02 2.26843096e-02
      1.05860112e-02 5.29300561e-03 7.93950818e-03 1.09640826e-02
      5.67107741e-03 7.56143639e-03 1.89035910e-03 5.67107741e-03
      3.40264640e-03 1.43667292e-02 6.04914920e-03 4.91493382e-03
      1.92816630e-02 2.00378075e-02 2.41965968e-02 1.51228728e-02 0.
      2.23062374e-02 7.18336459e-03 5.29300561e-03 4.91493382e-03
      1.20982984e-02 1.32325143e-02 4.53686202e-03 1.13421548e-02
      1.58790164e-02 1.77693758e-02 7.93950818e-03 1.24763707e-02
      3.40264640e-03 1.77693758e-02 3.78071819e-03 3.02457460e-03
      4.91493382e-03 2.79773157e-02 2.00378075e-02 7.56143639e-03
      1.20982984e-02 1.13421548e-02 5.29300561e-03 5.29300561e-03
      7.18336459e-03 1.13421550e-03 2.91115306e-02 7.56143651e-04
      5.67107741e-03 3.02457460e-03 7.93950818e-03 1.58790164e-02
      2.26843101e-03 1.17202261e-02 5.29300561e-03 6.80529280e-03
      1.62570886e-02 2.26843101e-03</_>
    <_>
      5.68181789e-03 0. 1.19318180e-02 1.19318180e-02 1.07954545e-02
      9.65909101e-03 1.81818176e-02 2.27272715e-02 5.11363614e-03
      2.27272720e-03 1.70454532e-02 2.84090894e-03 2.10227259e-02
      6.24999963e-03 6.81818184e-03 4.54545440e-03 7.38636358e-03
      8.52272660e-03 5.68181789e-03 3.97727266e-03 1.24999993e-02
      2.27272720e-03 4.54545440e-03 1.70454546e-03 3.40909092e-03
      1.36363637e-02 2.15909090e-02 1.76136363e-02 1.13636358e-02
      1.59090906e-02 1.19318180e-02 1.98863633e-02 1.19318180e-02
      7.95454532e-03 6.24999963e-03 1.76136363e-02 1.53409084e-02
      6.81818184e-03 1.70454532e-02 2.21590903e-02 3.40909092e-03
      9.65909101e-03 2.27272720e-03 1.76136363e-02 1.42045449e-02
      9.09090880e-03 1.13636358e-02 1.81818176e-02 5.11363614e-03
      3.18181813e-02 5.68181789e-03 2.21590903e-02 2.84090894e-03
      8.52272660e-03 9.65909101e-03 2.84090894e-03 1.81818176e-02
      5.68181789e-03 1.24999993e-02 2.84090899e-02 1.02272723e-02
      5.68181800e-04 1.59090906e-02 1.87499989e-02 6.81818184e-03
      5.11363614e-03 9.09090880e-03 7.38636358e-03 5.68181789e-03
      1.13636358e-02 1.19318180e-02 1.53409084e-02 6.24999963e-03
      1.47727272e-02 4.54545440e-03 1.36363637e-02 5.68181800e-04
      2.84090894e-03 2.84090894e-03 1.02272723e-02 9.09090880e-03
      5.68181789e-03 5.68181789e-03 5.11363614e-03 3.97727266e-03
      6.81818184e-03 1.59090906e-02 1.70454532e-02 1.30681815e-02 0.
      7.95454532e-03 1.07954545e-02 5.68181789e-03 1.42045449e-02
      2.27272720e-03 1.53409084e-02 6.81818184e-03 3.97727266e-03
      1.13636358e-02 2.27272720e-03</_>
    <_>
      7.05101574e-03 0. 1.36872660e-02 1.24429690e-03 1.65906257e-03
      1.11986725e-02 9.53960977e-03 6.05557822e-02 3.31812515e-03
      1.65906257e-03 1.74201578e-02 1.65906257e-03 1.74201578e-02
      5.80671895e-03 4.97718761e-03 3.31812515e-03 5.39195351e-03
      1.20282033e-02 5.39195351e-03 3.73289082e-03 7.05101574e-03
      2.07382813e-03 8.29531287e-04 1.65906257e-03 1.65906257e-03
      7.05101574e-03 1.78349223e-02 1.94939859e-02 1.86644532e-02
      2.28121113e-02 1.61758605e-02 1.20282033e-02 1.57610942e-02
      2.48859380e-03 2.07382813e-03 2.07382813e-02 2.48859394e-02
      2.07382813e-03 2.77892984e-02 1.16134379e-02 4.14765644e-04
      2.07382813e-03 4.14765644e-04 8.29531252e-03 1.11986725e-02
      6.22148486e-03 6.22148486e-03 3.11074238e-02 1.65906257e-03
      3.31812501e-02 5.39195351e-03 4.10618000e-02 0. 1.86644532e-02
      1.70053914e-02 7.46578164e-03 2.15678141e-02 3.31812515e-03
      9.95437521e-03 3.35960165e-02 7.88054708e-03 8.29531287e-04
      3.23517211e-02 2.77892984e-02 9.12484434e-03 4.14765644e-04
      6.22148486e-03 9.53960977e-03 9.12484434e-03 1.90792195e-02
      4.14765626e-03 1.24429697e-02 1.41020315e-02 9.12484434e-03
      4.97718761e-03 1.28577352e-02 4.14765644e-04 2.48859380e-03
      1.65906257e-03 6.63625030e-03 7.88054708e-03 4.14765626e-03
      1.03691407e-02 1.65906257e-03 8.29531287e-04 5.80671895e-03
      6.63625030e-03 2.65450012e-02 9.95437521e-03 4.14765644e-04
      7.05101574e-03 2.90335948e-03 4.56242217e-03 1.20282033e-02
      1.65906257e-03 1.24429697e-02 2.90335948e-03 7.46578164e-03
      2.90335948e-03 0.</_></support_vectors>
  <decision_functions>
    <_>
      <sv_count>40</sv_count>
      <rho>5.9471309185028076e-02</rho>
      <alpha>
        1. 1. 1. 1. 1. 1. 1. 1. 1. 1. 1. 1. 1. 1. 1. 1. 1. 1. 1. 1. -1.
        -1. -1. -1. -1. -1. -1. -1. -1. -1. -1. -1. -1. -1. -1. -1. -1.
        -1. -1. -1.</alpha>
      <index>
        0 1 2 3 4 5 6 7 8 9 10 11 12 13 14 15 16 17 18 19 20 21 22 23 24
        25 26 27 28 29 30 31 32 33 34 35 36 37 38 39</index></_></decision_functions></opencv_ml_svm>
</opencv_storage>
